SVM-light Version V6.02
0 # kernel type
3 # kernel parameter -d 
1 # kernel parameter -g 
1 # kernel parameter -s 
1 # kernel parameter -r 
empty# kernel parameter -u 
2 # highest feature index 
200 # number of training documents 
88 # number of support vectors plus 1 
2.0173835 # threshold b, each following line is a SV (starting with alpha*y)
1 1:0.31107816 2:4.301888 #
1 1:1.4874995 2:6.3903675 #
-1 1:0.27472147 2:6.2630038 #
1 1:3.2337461 2:6.6616831 #
1 1:2.5378785 2:10.293124 #
-0.050507016818883699 1:0.68634152 2:3.156436 #
-1 1:0.5683344 2:2.9512241 #
-1 1:1.7357192 2:6.5931492 #
1 1:1.2625655 2:5.5396633 #
1 1:1.1389295 2:1.6453156 #
-1 1:0.62865031 2:3.8597336 #
1 1:0.55893278 2:4.6938562 #
1 1:0.7904194 2:2.6884382 #
-1 1:-0.14585155 2:3.3275084 #
-1 1:1.7784321 2:6.217504 #
-1 1:-0.53447711 2:2.5101314 #
1 1:3.0671878 2:11.023081 #
-1 1:1.3850471 2:5.6905599 #
1 1:1.5656507 2:4.0063934 #
1 1:1.9578058 2:5.040257 #
1 1:0.64761156 2:4.7068906 #
-1 1:1.2996341 2:5.4198084 #
1 1:0.13742086 2:3.0961037 #
1 1:0.89601105 2:5.8019991 #
1 1:0.85491455 2:3.5393445 #
-1 1:0.41441527 2:2.6752737 #
1 1:1.4341273 2:4.7292256 #
-1 1:-0.40694198 2:1.8277184 #
1 1:2.0027986 2:6.4972878 #
1 1:-0.1233481 2:3.4786053 #
1 1:1.9513001 2:7.7589011 #
1 1:0.62480778 2:3.8489106 #
-1 1:-0.057980452 2:3.2200255 #
1 1:1.6520551 2:5.239449 #
-1 1:0.92998463 2:4.1629505 #
1 1:1.059025 2:4.3925028 #
1 1:3.5736673 2:12.128521 #
-1 1:-0.072356172 2:2.7718 #
1 1:0.095729917 2:3.5827594 #
1 1:0.92145997 2:4.6521034 #
-1 1:0.76522487 2:3.4493794 #
1 1:0.82673597 2:4.8664069 #
1 1:1.1468024 2:7.0296402 #
-1 1:2.7804935 2:9.982625 #
-1 1:-0.50859171 2:0.85268098 #
1 1:1.159893 2:5.601429 #
1 1:2.0749164 2:9.0069876 #
1 1:1.5544465 2:6.2307606 #
-1 1:2.469249 2:8.8931074 #
-1 1:-0.19982386 2:1.1022522 #
-1 1:2.8760262 2:9.1226873 #
1 1:3.0918391 2:9.8572378 #
-1 1:3.0707581 2:10.342443 #
-1 1:2.6701868 2:8.7951946 #
-1 1:2.5679989 2:8.6682091 #
-1 1:2.6694503 2:8.7632446 #
0.36204043249668416 1:1.3412805 2:7.545589 #
-1 1:2.0281217 2:8.0193148 #
-1 1:1.5896432 2:5.5489454 #
-1 1:3.3478527 2:10.154217 #
1 1:1.8853695 2:7.647872 #
1 1:2.5798731 2:10.032484 #
1 1:1.9460547 2:7.9576988 #
-1 1:2.3274932 2:7.9759517 #
1 1:3.2617807 2:12.106102 #
-1 1:2.2869394 2:7.8725238 #
-1 1:2.3646088 2:7.9338636 #
-1 1:1.9723866 2:7.4707499 #
-1 1:2.4182351 2:7.9266958 #
1 1:2.2581844 2:9.0725918 #
1 1:1.7210734 2:7.5799012 #
-1 1:2.9327435 2:9.704545 #
-1 1:2.1619074 2:7.473001 #
1 1:1.9551433 2:8.0350018 #
-1 1:1.5242847 2:6.6813846 #
-1 1:1.9068458 2:7.0714536 #
1 1:1.4720783 2:7.2288184 #
-1 1:1.72624 2:6.7301226 #
-1 1:2.1326578 2:7.1276693 #
1 1:1.8337175 2:6.3772836 #
-1 1:1.3229452 2:6.1318479 #
-1 1:1.9438072 2:6.5178881 #
-1 1:2.3201365 2:8.7842274 #
-0.3115334156777898 1:3.665329 2:10.953271 #
-1 1:4.0141296 2:12.02105 #
1 1:2.6511412 2:9.6807461 #
1 1:0.95410502 2:6.147984 #
