SVM-light Version V6.02
0 # kernel type
3 # kernel parameter -d 
1 # kernel parameter -g 
1 # kernel parameter -s 
1 # kernel parameter -r 
empty# kernel parameter -u 
2 # highest feature index 
200 # number of training documents 
100 # number of support vectors plus 1 
2.0374463 # threshold b, each following line is a SV (starting with alpha*y)
1 1:0.84732676 2:4.5128708 #
1 1:0.435087 2:3.4982333 #
-1 1:1.1977903 2:5.3948979 #
1 1:0.14716271 2:1.4942135 #
-1 1:0.70820606 2:3.3787069 #
1 1:1.712413 2:8.3111668 #
1 1:1.5995436 2:1.9137138 #
-1 1:1.2677835 2:5.1023359 #
-1 1:0.017491877 2:4.2838216 #
-1 1:0.22904791 2:2.6994722 #
1 1:0.9118526 2:4.5457606 #
1 1:1.9957628 2:8.7392149 #
1 1:0.74439907 2:2.1115243 #
1 1:0.15994336 2:3.8799021 #
1 1:0.7601468 2:3.2540956 #
-1 1:0.97493726 2:4.5698681 #
-1 1:-0.038854826 2:1.4534392 #
1 1:1.24418 2:3.6032376 #
1 1:0.02449316 2:3.8756213 #
1 1:0.23709522 2:4.458683 #
0.92206784961046773 1:0.61227012 2:5.8265285 #
1 1:1.0387416 2:5.3933225 #
1 1:0.71249342 2:5.6740732 #
1 1:1.6393332 2:4.2008491 #
-1 1:0.65854043 2:4.2281604 #
-1 1:0.5077433 2:4.1655111 #
1 1:2.3008003 2:5.2724538 #
1 1:1.6339172 2:7.8579488 #
1 1:1.1783007 2:4.1256733 #
-1 1:0.59683275 2:4.0192838 #
-1 1:0.73076147 2:3.9696305 #
1 1:0.096760482 2:4.0594096 #
-1 1:-0.17399746 2:3.2086153 #
1 1:1.8472914 2:5.14605 #
1 1:0.63142878 2:4.0868297 #
1 1:1.2104511 2:6.6784081 #
1 1:0.37638214 2:4.4383616 #
1 1:0.32470384 2:4.179595 #
1 1:2.5970018 2:6.2873335 #
-1 1:-0.14321817 2:2.7347245 #
1 1:0.15956391 2:4.3783002 #
-1 1:-0.53595728 2:1.9894878 #
-1 1:0.35166758 2:3.2701275 #
1 1:0.91487825 2:4.5335083 #
-1 1:0.46612537 2:3.2267852 #
-1 1:-0.36273485 2:2.0958486 #
-1 1:2.4619186 2:9.0727539 #
-1 1:0.35002905 2:2.5077505 #
-1 1:3.4345918 2:10.449143 #
1 1:1.5397061 2:6.2557864 #
-1 1:2.5778768 2:9.2149334 #
-1 1:2.1442933 2:8.8202934 #
1 1:1.3458583 2:6.8281312 #
-1 1:2.7658474 2:10.189346 #
-1 1:1.8696642 2:8.3163147 #
1 1:2.8599513 2:7.1885066 #
-1 1:2.0930159 2:8.8433275 #
1 1:2.3091199 2:9.3407917 #
-1 1:3.4925737 2:10.185096 #
-1 1:2.1172729 2:8.3096399 #
-1 1:1.8200405 2:8.0069847 #
1 1:1.5542322 2:7.7914491 #
-1 1:2.1569297 2:8.1907845 #
-1 1:1.6555077 2:7.6948919 #
-1 1:2.9962873 2:8.3691235 #
1 1:1.8420534 2:6.2483563 #
-1 1:2.5329881 2:7.8015256 #
1 1:3.0886626 2:11.354384 #
-1 1:1.8234193 2:7.2673059 #
-1 1:2.2104838 2:7.3672352 #
1 1:1.5364803 2:7.6532164 #
1 1:2.7032385 2:10.514535 #
1 1:1.6562862 2:8.0913839 #
-1 1:2.1720958 2:6.7615886 #
-1 1:1.6622764 2:6.3522596 #
-1 1:1.3899117 2:6.1109085 #
-1 1:2.9383981 2:9.8000612 #
-1 1:3.7093339 2:11.855951 #
-1 1:1.9260876 2:6.2945194 #
1 1:2.1135564 2:9.170723 #
1 1:1.7243466 2:6.1980577 #
-1 1:1.4711975 2:5.8331456 #
1 1:3.4055884 2:11.892691 #
1 1:1.6097469 2:7.6433702 #
-1 1:1.3881862 2:5.4295692 #
-1 1:1.0771368 2:4.8836088 #
-0.36210206393741373 1:1.6469839 2:5.2725768 #
1 1:1.0173211 2:6.5703187 #
-1 1:1.2615439 2:4.6593561 #
-1 1:2.1466298 2:8.9353695 #
-0.55996578567314259 1:4.2636714 2:11.246156 #
-1 1:-0.32861021 2:1.1079038 #
1 1:1.2546209 2:5.8686209 #
-1 1:-0.046635069 2:1.5217336 #
1 1:0.92641467 2:5.8335052 #
1 1:0.31770027 2:4.7243314 #
1 1:2.8288801 2:6.5480466 #
-1 1:-1.7303866 2:1.1237987 #
1 1:1.7305448 2:8.3604183 #
