SVM-light Version V6.02
0 # kernel type
3 # kernel parameter -d 
1 # kernel parameter -g 
1 # kernel parameter -s 
1 # kernel parameter -r 
empty# kernel parameter -u 
2 # highest feature index 
200 # number of training documents 
69 # number of support vectors plus 1 
2.0448807 # threshold b, each following line is a SV (starting with alpha*y)
-0.999999999999999 1:-0.19557534 2:1.7247393 #
1 1:1.5947795 2:6.3209977 #
1 1:1.4862019 2:7.3388362 #
1 1:0.42501563 2:2.1149869 #
1 1:1.880442 2:8.0096903 #
-1 1:0.66534102 2:3.123595 #
-1 1:0.58599091 2:5.1440954 #
1 1:1.7347031 2:7.0570312 #
1 1:1.4291874 2:6.3482089 #
1 1:0.97724622 2:3.1730163 #
1 1:1.4951328 2:6.4142585 #
1 1:0.59942514 2:2.9732425 #
-1 1:0.94190079 2:5.0614805 #
1 1:0.8903594 2:3.2565432 #
1 1:2.0267122 2:4.8409524 #
-1 1:1.4231411 2:5.2829814 #
-1 1:-0.030012203 2:3.2690201 #
1 1:0.56985968 2:3.8721879 #
0.33888686301930715 1:0.45664957 2:4.9008265 #
1 1:-0.084341511 2:2.9159043 #
1 1:2.7834361 2:10.68373 #
-0.66965439257580783 1:1.5072268 2:5.233758 #
1 1:0.77597749 2:3.5339355 #
-1 1:0.61053711 2:3.7178204 #
1 1:1.0273396 2:4.2349596 #
-1 1:0.82620484 2:3.9361951 #
1 1:1.6354445 2:7.1580567 #
1 1:0.24359816 2:3.2916186 #
1 1:1.4417247 2:5.3329015 #
1 1:0.96745735 2:4.2133803 #
-1 1:0.13347051 2:2.4525239 #
-1 1:-0.28784207 2:0.76228535 #
1 1:0.69185859 2:5.1887808 #
1 1:1.8673288 2:7.1072931 #
-1 1:2.4138343 2:9.0180407 #
-1 1:3.4239762 2:10.454705 #
-1 1:2.4450073 2:8.9929066 #
-1 1:2.2431848 2:8.6518307 #
-1 1:2.6199954 2:9.1051283 #
-1 1:3.2714875 2:10.807063 #
-1 1:3.1283548 2:9.6708269 #
-1 1:2.0361104 2:7.9586329 #
-0.028987023652571331 1:3.1069999 2:9.4439249 #
-1 1:1.9189498 2:7.6484795 #
-1 1:2.4979649 2:8.4140711 #
-1 1:2.3287239 2:8.0807352 #
-1 1:1.7042086 2:7.1207314 #
-1 1:1.6732452 2:6.962811 #
-1 1:2.6821997 2:9.4736881 #
1 1:1.8450307 2:8.2075987 #
-1 1:3.2033525 2:10.742925 #
-1 1:2.4163368 2:7.8978257 #
1 1:2.7556345 2:10.444183 #
1 1:2.8333766 2:10.420567 #
-1 1:2.3135118 2:7.4976726 #
0.35975455320907201 1:3.0263793 2:11.662894 #
1 1:1.4773687 2:7.515204 #
1 1:3.4232728 2:12.403598 #
1 1:2.3035295 2:7.5948853 #
1 1:1.0827985 2:6.3300953 #
-1 1:1.019366 2:5.2470093 #
-1 1:1.1562656 2:5.3276434 #
-1 1:1.5463997 2:5.8446054 #
1 1:3.8371971 2:13.289503 #
1 1:2.6130846 2:10.193355 #
-1 1:3.0484974 2:10.866363 #
1 1:2.1732302 2:8.0464058 #
-1 1:-0.65110207 2:0.82244498 #
